<?xml version="1.0"?>
<opencv_storage>
<cascade>
  <stageType>BOOST</stageType>
  <featureType>HAAR</featureType>
  <height>24</height>
  <width>24</width>
  <stageParams>
    <boostType>GAB</boostType>
    <minHitRate>9.9500000476837158e-01</minHitRate>
    <maxFalseAlarm>5.0000000000000000e-01</maxFalseAlarm>
    <weightTrimRate>9.4999998807907104e-01</weightTrimRate>
    <maxDepth>1</maxDepth>
    <maxWeakCount>100</maxWeakCount></stageParams>
  <featureParams>
    <maxCatCount>0</maxCatCount>
    <featSize>1</featSize>
    <mode>BASIC</mode></featureParams>
  <stageNum>7</stageNum>
  <stages>
    <!-- stage 0 -->
    <_>
      <maxWeakCount>2</maxWeakCount>
      <stageThreshold>-5.4101895540952682e-02</stageThreshold>
      <weakClassifiers>
        <_>
          <internalNodes>
            0 -1 4 -3.4916955232620239e-01</internalNodes>
          <leafValues>
            8.9743590354919434e-01 -9.9331104755401611e-01</leafValues></_>
        <_>
          <internalNodes>
            0 -1 7 -9.4256319105625153e-02</internalNodes>
          <leafValues>
            9.5158499479293823e-01 -9.5153778791427612e-01</leafValues></_></weakClassifiers></_>
    <!-- stage 1 -->
    <_>
      <maxWeakCount>2</maxWeakCount>
      <stageThreshold>-2.1594052016735077e-01</stageThreshold>
      <weakClassifiers>
        <_>
          <internalNodes>
            0 -1 14 -2.7324553579092026e-02</internalNodes>
          <leafValues>
            7.1428573131561279e-01 -9.8648649454116821e-01</leafValues></_>
        <_>
          <internalNodes>
            0 -1 0 4.7291312366724014e-02</internalNodes>
          <leafValues>
            -9.3022620677947998e-01 1.</leafValues></_></weakClassifiers></_>
    <!-- stage 2 -->
    <_>
      <maxWeakCount>2</maxWeakCount>
      <stageThreshold>-3.9763066172599792e-01</stageThreshold>
      <weakClassifiers>
        <_>
          <internalNodes>
            0 -1 5 -3.1940850615501404e-01</internalNodes>
          <leafValues>
            7.1428573131561279e-01 -9.4719469547271729e-01</leafValues></_>
        <_>
          <internalNodes>
            0 -1 1 2.2614300251007080e-02</internalNodes>
          <leafValues>
            -9.5027869939804077e-01 5.4956406354904175e-01</leafValues></_></weakClassifiers></_>
    <!-- stage 3 -->
    <_>
      <maxWeakCount>3</maxWeakCount>
      <stageThreshold>-1.1968014240264893e+00</stageThreshold>
      <weakClassifiers>
        <_>
          <internalNodes>
            0 -1 13 -1.0432999581098557e-02</internalNodes>
          <leafValues>
            7.8571426868438721e-01 -9.1612905263900757e-01</leafValues></_>
        <_>
          <internalNodes>
            0 -1 10 -1.3946046121418476e-02</internalNodes>
          <leafValues>
            7.0900875329971313e-01 -8.6496162414550781e-01</leafValues></_>
        <_>
          <internalNodes>
            0 -1 15 1.5002687177911866e-05</internalNodes>
          <leafValues>
            -1. 5.8428913354873657e-01</leafValues></_></weakClassifiers></_>
    <!-- stage 4 -->
    <_>
      <maxWeakCount>2</maxWeakCount>
      <stageThreshold>-6.7524248361587524e-01</stageThreshold>
      <weakClassifiers>
        <_>
          <internalNodes>
            0 -1 9 1.5771251171827316e-02</internalNodes>
          <leafValues>
            -9.5053005218505859e-01 1.2727272510528564e-01</leafValues></_>
        <_>
          <internalNodes>
            0 -1 6 -5.0649854529183358e-05</internalNodes>
          <leafValues>
            2.7528753876686096e-01 -1.</leafValues></_></weakClassifiers></_>
    <!-- stage 5 -->
    <_>
      <maxWeakCount>3</maxWeakCount>
      <stageThreshold>-1.3671879768371582e+00</stageThreshold>
      <weakClassifiers>
        <_>
          <internalNodes>
            0 -1 12 5.7516690343618393e-02</internalNodes>
          <leafValues>
            -8.8012617826461792e-01 8.0952382087707520e-01</leafValues></_>
        <_>
          <internalNodes>
            0 -1 11 1.2815715745091438e-02</internalNodes>
          <leafValues>
            -9.0004605054855347e-01 4.2710873484611511e-01</leafValues></_>
        <_>
          <internalNodes>
            0 -1 8 -1.9511658465489745e-03</internalNodes>
          <leafValues>
            4.1298422217369080e-01 -9.7920429706573486e-01</leafValues></_></weakClassifiers></_>
    <!-- stage 6 -->
    <_>
      <maxWeakCount>2</maxWeakCount>
      <stageThreshold>-7.1594142913818359e-01</stageThreshold>
      <weakClassifiers>
        <_>
          <internalNodes>
            0 -1 3 -3.3726105093955994e-01</internalNodes>
          <leafValues>
            4.9180328845977783e-02 -9.5667868852615356e-01</leafValues></_>
        <_>
          <internalNodes>
            0 -1 2 -1.5120188436412718e-05</internalNodes>
          <leafValues>
            2.4073725938796997e-01 -1.</leafValues></_></weakClassifiers></_></stages>
  <features>
    <_>
      <rects>
        <_>
          0 0 6 5 -1.</_>
        <_>
          3 0 3 5 2.</_></rects>
      <tilted>0</tilted></_>
    <_>
      <rects>
        <_>
          0 2 6 12 -1.</_>
        <_>
          3 2 3 12 2.</_></rects>
      <tilted>0</tilted></_>
    <_>
      <rects>
        <_>
          2 22 2 1 -1.</_>
        <_>
          3 22 1 1 2.</_></rects>
      <tilted>0</tilted></_>
    <_>
      <rects>
        <_>
          3 0 13 14 -1.</_>
        <_>
          3 7 13 7 2.</_></rects>
      <tilted>0</tilted></_>
    <_>
      <rects>
        <_>
          3 0 15 16 -1.</_>
        <_>
          3 8 15 8 2.</_></rects>
      <tilted>0</tilted></_>
    <_>
      <rects>
        <_>
          4 0 14 12 -1.</_>
        <_>
          4 6 14 6 2.</_></rects>
      <tilted>0</tilted></_>
    <_>
      <rects>
        <_>
          4 22 2 1 -1.</_>
        <_>
          5 22 1 1 2.</_></rects>
      <tilted>0</tilted></_>
    <_>
      <rects>
        <_>
          7 0 6 10 -1.</_>
        <_>
          7 5 6 5 2.</_></rects>
      <tilted>0</tilted></_>
    <_>
      <rects>
        <_>
          7 10 4 4 -1.</_>
        <_>
          9 10 2 4 2.</_></rects>
      <tilted>0</tilted></_>
    <_>
      <rects>
        <_>
          9 0 15 1 -1.</_>
        <_>
          14 0 5 1 3.</_></rects>
      <tilted>0</tilted></_>
    <_>
      <rects>
        <_>
          10 18 8 4 -1.</_>
        <_>
          10 20 8 2 2.</_></rects>
      <tilted>0</tilted></_>
    <_>
      <rects>
        <_>
          12 16 12 8 -1.</_>
        <_>
          12 16 6 4 2.</_>
        <_>
          18 20 6 4 2.</_></rects>
      <tilted>0</tilted></_>
    <_>
      <rects>
        <_>
          16 0 8 10 -1.</_>
        <_>
          16 0 4 5 2.</_>
        <_>
          20 5 4 5 2.</_></rects>
      <tilted>0</tilted></_>
    <_>
      <rects>
        <_>
          18 0 6 3 -1.</_>
        <_>
          20 0 2 3 3.</_></rects>
      <tilted>0</tilted></_>
    <_>
      <rects>
        <_>
          19 1 4 15 -1.</_>
        <_>
          21 1 2 15 2.</_></rects>
      <tilted>0</tilted></_>
    <_>
      <rects>
        <_>
          22 20 2 1 -1.</_>
        <_>
          23 20 1 1 2.</_></rects>
      <tilted>0</tilted></_></features></cascade>
</opencv_storage>
